1.8199258640730671 1.4831460564482566 0.1636148464928628 -30.07905666515694 1.4601389491285188 12.878467250978115 
2.7535624413641524 1.945097673188722 0.6389665341740214 -0.21047198834994715 4.990183500342847 -16.73977295220704 
-13.628268430215282 -13.849542226892085 -0.03528914752689953 0.1164487449628985 5.777161403183071 11.64491205127204 
16.2721870830408 -19.452207296217075 0.2053529473411528 2.671134138802842 5.352906245879727 6.265822620929746 
-0.6502250882038234 0.22058798683183037 -7.491812486289352 23.045322875695778 -15.500428163828394 -13.62708499468161 
5.751477338118268 5.224464012170971 -19.136494756124886 0.8715377686739209 11.642862357036789 16.19894285186689 
-10.221528385825644 -14.156610183782583 2.7832720431245415 3.53490426275406 9.915880775691484 16.597852429491084 
15.121820102264284 2.6607538692701227 -1.7569534976002201 -2.601701245026195 -11.606132376996841 -16.0241749705997 
0.9742546809241962 -16.724723387480985 -0.016216380760951145 11.812983059522589 8.12975879239467 -13.02904309074183 12.908465534757939 -6.177214598621055 
13.802049286249677 14.110384550360532 17.8963687382801 -1.8575433570810287 1.3248190076872153 -12.578794850656791 7.019954638117918 10.469709253558435 
-3.045825798883843 2.7864979219075527 -0.8194702660559118 -7.542429993608645 -11.477054600447108 9.769010036558681 -7.83533783356056 9.616665103182912 
-1.286493067313442 13.257585001068795 1.8421414693445202 -9.547467657799587 8.213026297806584 8.926252998155402 -3.0570578357410096 10.82863355843669 
30.76807737960431 24.79900967407915 1.6803266185327346 0.6517416410218128 -2.821676405110845 0.37078600803634376 -6.017296746656132 -2.184421005015389 
-15.003561475082446 11.460845997987061 8.240667264800658 -16.85691254647078 11.880491415751177 3.4906013740280604 13.665815662815973 14.038086019532583 
-5.7159615038820455 12.866651943266698 -11.23027072081635 3.8845742637286174 4.467417576635304 5.113433870103732 
-0.1085596804857526 -17.260662266547666 8.210031455281365 -6.224795822407792 -8.369245908300721 2.8332524707487967 
0.6340344979800183 -14.833416913527243 0.04474373619335989 -9.109560523753583 2.9611311882973963 -3.858275800347055 
-11.377700404035151 -12.830753855186789 1.2763138790117223 -0.40574329507269474 2.240661497905838 -4.930018237858029 